{"generation": 3, "inputs": ["cart.x", "cart.vel", "b0.x", "b0.y", "b0.vel", "b1.x", "b1.y", "b1.vel"], "outputs": ["acc"], "layers": [8, 10, 10, 1], "hidden_activation": "tanh", "output_activation": "tanh", "ticks": 720000, "time": 9.714715957641602, "weights": [0.09594302891599282, 0.5936101520842327, 0.20578564815724798, -0.8829475989787257, -0.20788421088686992, -0.45838945092491534, -0.2415194313965236, 0.0362350301090697, -0.4888105966215548, 0.3317365682117859, -0.11616110557524761, 0.8139001509485324, -0.43738732769215494, -0.592551494492241, -0.08573939522824281, 0.5180881077128214, 0.5631538579099882, -0.15035787366336284, -0.6654941406761732, 0.8153750576324357, -0.36906148509593617, -0.30905720536395176, 0.3886522947665252, 0.6460206563539812, 0.8245682199421621, 0.946513421872428, 0.3770174983602994, 0.14561765926033043, 0.9481079454135122, -0.06265543111486327, -0.9591651966392089, -0.484568320711709, -0.2868343208402553, -0.4255730052777169, 0.26918746590126164, 0.6761166093606457, -0.8289372109173327, -0.16244865164938038, -0.612924271582191, -0.8180712285407805, 0.7011411302548385, -0.3743909487952646, -0.7733781604015455, -0.7248128788129835, 0.8602507952504368, -0.35331160610100776, 0.505709690333612, -0.9545819208854278, 0.8450556213228531, -0.641412885750644, 0.4682530730597567, 0.6811514744486626, -0.4415711267817226, -0.11733790645013698, 0.15261733429846336, 0.30822386110437083, 0.031008431765960243, 0.894951753690514, -0.7265972190196459, 0.23366016341128293, -0.2156430547920425, 0.1927169570828311, 0.15530116772764924, -1.0007857180409043, -0.5504828464099703, 0.6527269354347527, 0.9973500514974172, -0.6662974269963904, 0.6955469838049018, 0.13005335310013133, 0.1732578438669765, 0.7938898905234324, -0.7586178660630738, -0.9294850567390858, 0.38408705530864706, 0.872685655778493, -0.062482232925181735, 0.3404789060052653, -0.42167762971076117, -0.9707114348402419, 0.6378347615277242, -0.5132510524630545, 0.014606205324938726, -0.5203379259530998, 0.9753235160961191, 0.07388162125451903, -0.06755530051837799, 0.9044806381522819, -0.34511853064359665, 0.33284127363727767, -0.8841709500207907, 0.5733449819861733, -0.08936129286462946, 0.8795620966030109, -0.05171460382479065, -0.7787230236032181, -0.17528802263792764, -0.5242734848942645, -0.4616853480904841, 0.5964599418763348, 0.5313941689000132, -0.5949035628506489, 0.5685524475255777, -0.9712876886632555, -0.14843221967557407, -0.1246990372924246, -0.5945773501665588, 0.39492187827047354, -0.20268902354224094, 0.3789306697296062, 0.5974186848790335, 0.5181895930081686, 0.11915225634776272, -0.6992771837804874, -0.1370401854411163, -0.4313710087720304, 0.6496479357896237, -0.4935040725511759, 0.6913251497303781, 0.8322063039529315, -0.5532932272100957, -0.025348426336659458, -0.941547441777711, -0.8790323798102289, -0.922247712421256, 0.6793001225594062, 0.08117835148561015, 0.5776466810860377, -0.18431528513762752, 0.2066007094361253, -0.0803905955629709, -0.2724628749456166, -0.4152345581853709, 0.805090674656948, -0.049801884002619534, 0.7649446597975984, 0.6483191408030831, -0.9979661814958594, 0.7952424944312524, -0.8483268648179625, 0.2858221657993121, -0.8279063375992566, 0.21545134500474217, -0.6067302478900984, -0.07947157858479525, 0.5839916711758177, 0.18233288444413587, -0.28650093857262204, 0.3881576635059145, 0.5397081044911178, -0.8096319487755741, -0.41729986217163617, 0.5715845002908249, -0.4699815654795696, 0.17488974261041346, -0.0922481802016043, 0.7242744765185776, 0.705977062231737, -0.9128259578166695, -0.33351187792477366, 0.21375374017964388, -0.33613850286546043, -0.5800453102853205, 0.26489341670353905, 0.10831633818152109, 0.8108603718292651, 0.40029238745139395, -0.43742670205545187, 0.4420482874078788, -0.36398258144517226, -0.6207917694810836, 0.1353587520356967, -0.7811485094177413, -0.3403325788341691, 0.6500700247558229, 0.16075934841097994, -0.6378978028174433, -0.3847302867295024, 0.5981109993622096, 0.34366957232517237, 0.9944505343510555, 0.9108950022894213, -0.24193605420776554, 0.01659269269266095, -0.92660681807166, 0.4438749571034206, -0.37061916922838156, 0.29006202249260044, -0.007254742577163853, -0.31244226270315734], "biases": [-1.0, -1.0682002224829634, -1.0, -0.9623036730538835, -0.9446080483678923, -0.9987817792740407, -1.0, -1.0386404693543902, -1.0, -1.0, -0.8575065776572546, -0.9813849724531185, -1.0, -1.0, -1.0, -0.9930412463736222, -1.0, -0.938713735115687, -1.0, -1.0703609796781397, -0.9386229002149147]}